-0.023498526,0.39764506,-0.5260776,-0.20327765,-0.10694765,-0.07671295,-0.84258777,-0.5155184,1.0241638,0.24054255,0.37238994,-0.21568038,0.9938353,0.50075865,0.21242084,-0.036690958,0.67350215,0.21080692,-0.8645252,0.17587878,-0.47704843,0.11880753,-0.25094116,0.13399483,0.51107264,-0.20621534,0.29547423,0.3276528,0.3154978,0.26080543,0.22184876,0.6498949,0.34839368,-0.1578471,-1.1771588,0.12724102,0.1503143,0.38558716,-0.049544804,-0.05548007,-0.40300295,-0.33807364,-0.1641675,-0.33305362,-0.013926521,0.14899871,0.3113187,0.031533096
0.26359007,-0.56090623,0.013838286,-0.15372582,-0.34758887,-0.011122921,-0.041796103,-0.13250364,0.026975231,-0.29633588,0.1480345,-0.03833718,-0.10485299,0.14810619,0.033827104,-0.4814431,-0.06666452,0.37409186,0.06378016,0.6818057,0.5888379,0.42711923,0.27134737,-0.48062178,-0.005024951,-0.4268094,-0.82549816,-0.20111749,-0.051005445,-0.20990552,0.053511277,-0.34085497,0.04956133,-0.3593304,0.037032053,-0.5596986,0.3667748,0.5374486,-0.11815119,-0.21221939,-0.021640854,0.35475257,0.79717374,0.41468346,-0.05525018,-0.30620673,-0.25477627,0.16572471,-0.16517857,-0.6914003,0.00396387,-0.04901789,-0.3632778,0.6576647,-0.546606,0.07077449,0.092441596,-0.21713567,0.43449166,-0.38116232,0.23356746,0.25774103,-0.17782038,0.30267066,0.057011038,0.037520356,-0.019194558,-0.97138274,-0.09082979,0.41034916,-0.114925034,0.553586,0.0540553,-0.37544596,-0.12674129,0.29198653,-0.16836445,0.77521014,-0.28577736,-0.15083769,-0.11251347,-0.5262672,0.017577145,0.41940454,-0.28771994,-0.41802102,0.08797161,-0.24674018,-0.014802793,-0.13457322,0.38141093,-0.2447247,0.010395346,-0.077002846,0.19084081,0.04904376,0.059927136,0.69832754,-0.007850762,-0.0088076,-0.18610218,0.18908803,0.31645486,-0.0034285195,-0.0036894227,-0.32523087,-0.39383763,-0.20784359,0.27315378,0.02463558,-0.104207814,-0.2939933,-0.073708154,-0.40949535,0.004230552,-0.34729427,0.16966008,-0.21079418,0.21874519,0.30152428,0.083015054,0.4610734,0.112990506,-0.11165879,-0.23771593,-0.32928073,-0.09510794,-0.15449625,-0.10570057,0.36891443,-0.0056020273,-0.07296348,0.27443776,-0.4208084,-0.33695015,0.22784533,0.016123446,-0.008670588,-0.520624,-0.1865162,-0.2103637,-0.21220481,0.26920852,0.14695562,0.07934558,-0.3685279,-0.00013341586,-0.4916215,-0.5135313,0.09403591,-0.09597672,0.24484378,0.0002850345,0.1642676,0.42642203,0.35441154,0.047800552,-0.06982391,-0.5957285,0.30022222,0.03563215,0.10511543,0.02044809,-0.24221131,-0.085627034,0.75518864,0.08616151,-0.08379807,-0.039592225,0.02317441,0.12119589,0.12399099,0.2021839,0.25564793,-0.28144482,0.08858053,0.38051197,0.582749,-0.07016887,0.56995827,0.3266985,0.68153656,0.27662638,-0.15798703,-0.053181373,-0.97133976,0.18428251,-0.08820508,-0.25098726,-0.17419878,-0.105123475,-0.060940202,-0.038239773,0.37193176,0.01817181,-0.02286574,0.03187684,-0.052428767,-0.44684148,0.27548853,0.035742603,-0.10168776,-0.9673358,-0.15260358,0.023441881,-0.4740018,0.58330363,0.28568596,0.14998487,0.21682835,-0.008811359,0.042183444,-0.08407681,0.3938424,-0.16640362,-0.32903445,-0.15502107,0.12745997,-0.3129475,0.019064741,0.35084778,0.009588077,0.07797414,-0.19935481,-0.19191812,-0.06402454,0.018130029,0.28778258,0.22038458,0.62892175,0.068144664,0.30214366,0.15290067,-0.1762156,0.1351292,-0.2473608,-0.07194311,-0.27473748,0.092469044,0.010093398,-0.16951598,-0.20959316,0.05554349,-0.0077981274,0.27204177,0.009977859,-0.10881583,0.08440594,-0.060691446,0.2496622,-0.16975392,-0.54363555,-0.29107934,0.0014958057,-0.30881107,0.006264065,0.17856981,0.7543744,0.01179631,0.6887701,0.093827076,-0.09667554,0.3402132,0.486677,0.07581727,-0.12346708,-0.10039739,-0.27117926,0.06870621,0.591626,-0.2531806,0.025998995,0.07642949,-0.101736374,-0.042572893,-0.34636244,-0.2603815,0.4160961,0.13593283,-0.18480383,0.022454888,-0.059347652,0.46403563,0.06790952,0.11849984,-0.007093253,0.21199664,-0.016370358,-0.15413664,0.077098966,-0.036876407,-0.54182696,0.085542984,-0.7312911,0.23357235,-0.039572205,-0.08230729,-0.33719784,0.14869949,0.109149635,0.063596815,0.26957998,-0.4025073,-0.015393818,0.13559994,0.29150718,-0.005745008,0.21033031,0.5263632,-0.29864737,0.1392448,-0.113173686,0.04292964,0.18655059,-0.47137848,0.22310147,0.00075993245,-0.29552123,0.33763498,0.09258469,0.116976924,0.57965684,0.041944746,-0.044182964,-0.20709798,0.12685998,0.30634642,0.0946786,-0.051881526,-0.09396728,-0.5036562,0.2349768,0.2938096,-0.053305086,0.12469232,-0.04047075,-0.037297383,0.123548895,-0.011870731,0.69250673,-0.14790063,-0.1457433,-0.03703658,0.113048874,0.020065479,0.042605937,0.30327067,0.5024025,-0.05407849,0.09679572,0.6526693,0.021512436,-0.12067065,0.36817175,0.005185206,0.4905721,-0.07218397,-0.35624716,0.39880726,-0.38619223,-0.038325734,0.17747928,-0.16150174,0.02559043,0.2989065,-0.030065412,-0.08165167,-0.2506171,-0.1920657,-0.40163922,-0.0038359105,0.42952845,0.04975425,-0.59613323,-0.07816558,-0.100515746,0.0012070269,-0.13614921,0.78275275,-0.27030146,0.11163947,-0.2466217,0.5597782,0.11179151,0.3719376,-0.29728884,-0.056402974,-0.073057465,0.3971641,0.93326277,-0.079542615,0.29743806,0.117795065,0.4884679,1.066,0.31853896,0.11101432,-0.16370043,-0.062063176,-0.15449902,0.41060925,-0.2557596,-0.023650201,0.08394511,0.27617437,0.2609729,-0.05136937,-0.13228475,-0.058783688,-0.085978895,-0.15200952,-0.16160627,0.22754711,0.17105225,0.22150032,-0.08923038,0.13871261,0.20115617,0.034021486,-0.60194695,0.44043234,0.3642679,0.0035691184,0.102591775,0.086542845,-0.115998834,0.6423315,0.23021753,-0.056997824,-0.012243175,-0.27821714,-0.06030346,-0.09810302,0.02395673,0.056653652,0.23961006,0.36956438,0.35654312,-0.2163339,0.103479125,0.059781052,0.12763815,-0.10736758,-0.4035265,0.18555923,0.45247412,-0.108332165,-0.32427508,-0.017256085,-0.5255419,0.03517081,-0.63304204,0.21735401,-0.1417813,-0.17361501,-0.42008862,0.07032155,-0.27345547,0.49725395,0.41278788,-0.112948455,-0.44019085,0.25561655,-0.26776415,-0.043678224,0.3236975,-0.010258657,-0.650811,0.2231944,-0.051523503,0.20088294,-0.13480523,-0.038172167,-0.07964639,-0.17631103,0.19502349,-0.1897322,0.0040504145,0.02999362,-0.16080718,0.07106634,-0.23750669,0.02703036,-0.048137397,0.13646567,-0.14512557,0.019118058,-0.16783302,0.087172545,-0.2978684,0.29967675,0.110415794,-0.048975494,-0.07137967,-0.0954399,0.18024664,-0.2234099,-0.5438947,0.049141787,0.5870131,-0.25081906,-0.8199413,-0.02671816,-0.566873,-0.011813151,0.41086608,-0.0056797382,0.2535605,-0.09421134,0.8571545,-0.044896845,0.051199943,-0.17708336,0.13460037,0.5115071,0.5912246,0.5754249,-0.84538233,-0.24920182,0.101870924,0.15437526,-0.5148527,0.16476761,0.27011025,-0.08922638,0.11538873,0.9846596,0.15371966
-0.0036956747,0.26335725,-0.28145272,0.40663785,0.3841806,0.101988286,-0.03411505,0.021343464,0.29773685,-0.16302614,0.07198835,0.55048025,-0.3367998,-0.007441613,-0.032842666,0.19931354,0.051815335,0.37479222,-0.32043558,0.40552706,0.40970066,0.14126383,-0.14194304,-0.32469922,0.16555147,-0.07490565,-0.18429664,-0.009882182,0.30831861,-0.24863131,0.57584643,0.26888958,-0.05192605,0.2310909,0.24877226,-0.06431907,0.31838688,0.020223249,-0.18799317,0.02935804,0.057048287,-0.30596113,-0.29980555,0.049543872,0.17975341,0.019991226,0.08925854,-0.6540888,0.018317046,0.021040274,0.21635361,0.27542615,-0.42574397,-0.664212,0.13751286,0.107803725,0.050018623,-0.06291421,0.047337394,0.6245821,0.30589616,-0.12586772,-0.31795368,0.057008006,-0.03013396,0.537128,0.19067323,0.18379794,0.027565787,0.3720934,-0.5444,-0.33631754,0.052324217,0.06051738,-0.20061842,-0.111397326,-0.21166459,-0.18494016,0.30993906,0.07529826,0.05509996,0.17260706,0.32454506,-0.012913108,0.06731623,0.1921218,0.17264937,0.042238917,-0.23720038,-0.09528614,0.35218018,-0.020396078,-0.044545658,-0.22327968,0.24784303,-0.41658518,-0.17590638,0.18337531,-0.08229663,0.14611548,-0.5670426,-0.20282798,0.0018423973,-0.15985392,-0.054876123,-0.1045931,-0.24113014,-0.27781302,0.39458457,-0.3995481,0.30768034,0.21749103,0.034325,-0.29292077,0.70050144,-0.028686399,0.0679092,-0.09173853,-0.14675865,-0.021314634,-0.062022205,-0.032774862,0.015992893,-0.29306513,-0.10543102,0.10899726,-0.10759308,0.13689819,0.27005267,0.08358148,0.19490185,-0.024683505,0.21966636,0.16004802,0.11394875,0.1747969,-0.19982488,-0.18356064,0.3797421,0.21167596,0.23005266,-0.18120678,-0.17746305,-0.08295917,-0.19120912,-0.25787386,0.022763565,-0.395244,-0.012487899,0.13822047,-0.25427657,0.1488746,-0.19968225,-0.16103888,-0.16706237,0.35546127,-0.03135144,0.085335486,-0.31672513,0.16512215,-0.61869353,0.19830388,-0.083848655,0.27303782,0.23882021,-0.09916445,0.35697764,-0.022505257,0.25561038,0.31120682,-0.24792384,0.026560744,0.13088198,-0.14238606,-0.33117825,0.15028058,-0.3243703,-0.0026518845,-0.24257918,-0.2707883,-0.36194807,0.46602952,-0.7793896,0.19092612,0.018910276,-0.15202315,0.035944663,-0.55558527,0.6266333,-0.28136367,-0.049917463,-0.41996932,0.11623542,-0.37757376,-0.15619822,-0.1469637,0.08521695,-0.77872723,0.015781503,-0.2618273,0.13935307,-0.13098565,0.3653395,-0.08562576,0.2521012,0.19545357,0.13035624,0.045912784,-0.036239408,0.07037392,0.41324922,-0.23965302,0.15285143,0.05695793,-0.25291637,0.043921947,0.2927566,-0.4549045,-0.2255838,0.044139985,-0.14209162,0.06744614,0.4489415,0.32536343,-0.10747188,-0.75108504,0.17354143,0.013081728,0.3005146,-0.39676565,-0.14664796,-0.24795195,-0.51697105,-0.49556288,0.108351685,0.17668433,0.080402374,0.026329063,0.10516862,-0.12828062,0.5659301,-0.34187138,-0.2307309,0.15881541,0.41377637,-0.17253873,-0.05053879,0.014126246,0.16140194,-0.008733069,0.32209936,0.106342964,-0.14176752,-0.20138161,-0.4454124,-0.3134487,-0.31566954,0.048474956,0.3980955,-0.13144955,-0.5968222,-0.6480251,0.5371469,0.1434842,-0.65371954,0.5758024,0.36796606,0.20079058,-0.27507654,0.20582262,0.40512058,-0.47076052
0.1531215,0.19501068,0.09355865,0.116377324,-0.18935864,0.20442909,0.14151138,0.15501627,0.18584041,0.17341478,0.14692916,-0.16791233,-0.18170208,0.14005259,0.1423207,0.29404163,-0.13086942
